svm_type c_svc
kernel_type rbf
gamma 0.5
nr_class 3
total_sv 23
rho -0.117685 0.0741733 0.824946 
label 0 2 3 
nr_sv 4 10 9 
SV 
0.2293549227233695 0.8666860730114991 1:-0.222222 2:1 3:-0.83050799 4:-0.75 
1.694889456357953 0 1:-0.555556 2:0.083333299 3:-0.762712 4:-0.66666698 
1.840450754610497 1.146308473772212 1:-0.88888901 2:-0.75 3:-0.898305 4:-0.83333302 
0 0.2126789132641673 1:-0.61111099 2:0.25 3:-0.79661 4:-0.58333302 
-0.5515710568771237 0 1:0.5 3:0.254237 4:0.083333299 
-0.9578789474177867 0 1:-0.66666698 2:-0.66666698 3:-0.220339 4:-0.25 
-0 0.0597719419161889 1:-0.61111099 2:-1 3:-0.152542 4:-0.25 
-0 18.55236670845657 1:0.0555554 2:-0.83333302 3:0.186441 4:0.166667 
-0 100 1:-0.111111 3:0.28813601 4:0.41666701 
-0 100 1:0.111111 2:-0.58333302 3:0.322034 4:0.166667 
-0 100 1:0.33333299 2:-0.166667 3:0.355932 4:0.33333299 
-0 100 1:-0.055555601 2:-0.41666701 3:0.38982999 4:0.25 
-0 6.680376853596582 1:-0.38888901 2:-0.166667 3:0.186441 4:0.166667 
-2.255245129396909 0 1:-0.555556 2:-0.58333302 3:-0.322034 4:-0.166667 
-1.203343355666242 -0 1:-0.66666698 2:-0.58333302 3:0.186441 4:0.33333299 
-0.3289137211411966 -0 1:0.88888901 2:-0.5 3:1 4:0.83333302 
-0.04424115179261712 -69.93031639266927 1:-0.055555601 2:-0.83333302 3:0.355932 4:0.166667 
-0 -32.74458599790175 1:0.0555554 2:-0.33333299 3:0.28813601 4:0.41666701 
-0 -88.52082138546588 1:-1.32455e-07 2:-0.166667 3:0.322034 4:0.41666701 
-0 -34.09679172793242 1:0.61111099 2:-0.166667 3:0.627119 4:0.25 
-0.6491752314478227 -0 1:1 2:0.5 3:0.83050799 4:0.58333302 
-0 -100 1:0.111111 2:-0.33333299 3:0.38982999 4:0.166667 
-0 -100 1:-0.055555601 2:-0.166667 3:0.28813601 4:0.41666701 
